{
    "W_kernel": [
        [
            0.10170473151133437
        ],
        [
            2.409369691298622
        ],
        [
            3.814857795185079
        ],
        [
            -6.65487411752541
        ]
    ],
    "b_kernel": -3.689871306507731,
    "tags": [
        "traction",
        "bead image previous",
        "bead image next",
        "displacement",
        "bead image",
        "from",
        "the",
        "with",
        "as",
        "and",
        "provided",
        "uploaded"
    ],
    "prefixes": [
        "image",
        "array",
        "calculate"
    ],
    "W_semantic": [
        [
            -2.544068331527336,
            -1.7893718472019515,
            8.575726326291946
        ],
        [
            -0.02330216964025847,
            -0.04497178923935806,
            -0.011879907155739802
        ],
        [
            -0.009368409396120466,
            0.00029125961450961717,
            0.037281595095018376
        ],
        [
            7.452501642725542,
            12.069681598520107,
            3.605162957780217
        ],
        [
            -0.013948707862423908,
            -0.04833620631293534,
            0.04425705727019583
        ],
        [
            -4.439266674599695,
            -3.46331833660869,
            -3.240299397457586
        ],
        [
            -4.699578411205843,
            -3.41353795095598,
            -3.1726854812440846
        ],
        [
            0.01707383641919489,
            -0.02466146415702807,
            -0.06293401464684147
        ],
        [
            0.07209712885480718,
            0.016400841635136342,
            -0.03770441427243912
        ],
        [
            -0.030916787558521716,
            0.02739628323864218,
            0.003637853972586288
        ],
        [
            -0.06573602842174683,
            -3.5981817272055823,
            -0.38705483657732337
        ],
        [
            -0.09273421159896439,
            -3.7334562721914737,
            -0.6972699210381155
        ]
    ]
}