{
    "W": [
        [
            -0.10979247355582394,
            -0.006052205901140206,
            -3.7266785820666053,
            0.173581849000642,
            -0.021327531773580412,
            -0.005718457265828387,
            3.712024393140323,
            -2.4147312628061623,
            -0.19615094457009039,
            0.05321681704188951,
            5.572598366456893,
            4.894405233035704,
            -0.01758810826235131,
            -0.043185445285187224
        ],
        [
            0.003090521950473279,
            -0.04432933173062944,
            -0.044650031618155527,
            -0.09857551415325161,
            -0.007084553512018527,
            0.2583898142563514,
            0.8036364565939023,
            7.107233965071003,
            -0.07912373762420533,
            -0.049922416942589476,
            -0.7006140805199794,
            -0.7495875447552894,
            0.06671576035791588,
            0.29678823361134204
        ],
        [
            0.18832567412562104,
            0.09285498954827975,
            -0.6478814029366378,
            0.010471860319681177,
            -0.14896607284038293,
            -0.02593375161195366,
            -0.8660209514049316,
            -0.2047013130042922,
            -0.1336531743384992,
            -0.18141737362472715,
            -0.12706958888905165,
            -0.15122633789115042,
            0.16187417600123735,
            -0.1515692547742244
        ],
        [
            0.06459092524956532,
            0.016101403383889542,
            2.1437562103247343,
            -0.12835151972613587,
            -0.1536503635365033,
            -0.17411222507930732,
            -2.863738903737565,
            -2.123472199361019,
            -0.22229151962213134,
            0.004294955656179907,
            -2.3844489814985868,
            -2.0079144445489594,
            0.020314237189729304,
            0.13164038629638208
        ],
        [
            0.01429148793761394,
            0.007718418057156229,
            3.2248282538036226,
            0.019064389427404193,
            0.211148328383857,
            0.1343072966054838,
            1.0470387471649254,
            -1.995553162279272,
            -0.2107465484301989,
            0.21699401740594834,
            -1.5080635092869243,
            -2.0427100059037215,
            0.11127681588591481,
            0.018985347640139854
        ],
        [
            -0.014060161175173894,
            0.026248046466554584,
            -0.6415275929255186,
            -0.14339358020535442,
            -0.06645267662041779,
            -0.021226409865557135,
            -0.7784823475258102,
            -0.24777095935227145,
            0.21624565226208456,
            -0.11692562136762433,
            -0.18771998523469377,
            -0.09046096598768016,
            -0.06186770053478843,
            0.07342390716564265
        ],
        [
            -0.03639908369823469,
            -0.0771028290066228,
            -0.7943728859856185,
            0.1116399974862943,
            -0.058023615919548494,
            -0.20196380114606757,
            -0.7195875531888922,
            -0.2861905358680707,
            0.022630731564213472,
            0.12294433116974819,
            -0.14997904608874413,
            -0.1002634645312277,
            -0.03308147234244154,
            0.06525039190405423
        ]
    ],
    "b": [
        [
            1.2937071008632322
        ],
        [
            -0.694782326454102
        ],
        [
            -1.5903413057259308
        ],
        [
            4.657929029963726
        ],
        [
            -0.41957552808730875
        ],
        [
            -1.636332873484065
        ],
        [
            -1.6106040970755824
        ]
    ],
    "graph": {
        "image process displacement": [
            "calculate displacement"
        ],
        "image process beads": [
            "calculate displacement"
        ],
        "calculate displacement": [
            "calculate traction"
        ]
    },
    "tokens": [
        "calculate displacement",
        "calculate traction",
        "image",
        "image process beads",
        "image process displacement",
        "query",
        "traction"
    ],
    "token_to_idx": {
        "calculate displacement": 0,
        "calculate traction": 1,
        "image": 2,
        "image process beads": 3,
        "image process displacement": 4,
        "query": 5,
        "traction": 6
    },
    "idx_to_token": {
        "0": "calculate displacement",
        "1": "calculate traction",
        "2": "image",
        "3": "image process beads",
        "4": "image process displacement",
        "5": "query",
        "6": "traction"
    },
    "vocab_size": 7
}